{
  "network.0.weight": [
    [
      -0.7525678277015686,
      -0.06952638924121857,
      3.007943205611793e-39
    ],
    [
      0.11301098018884659,
      0.6981224417686462,
      -6.223741012436886e-39
    ],
    [
      -0.9928978085517883,
      -0.030909299850463867,
      -3.020536394650987e-38
    ],
    [
      0.21682371199131012,
      -0.9242590665817261,
      5.954488238749501e-38
    ],
    [
      -0.053556181490421295,
      0.81468665599823,
      -7.641870472616708e-39
    ],
    [
      -0.7611967325210571,
      0.3132079541683197,
      8.549976337228549e-39
    ],
    [
      -0.8409847617149353,
      -0.0059022060595452785,
      3.1336612578580795e-38
    ],
    [
      0.9600406289100647,
      0.475210964679718,
      1.4621281300119252e-38
    ],
    [
      0.7357541918754578,
      0.01576351933181286,
      2.464345059357974e-38
    ],
    [
      -0.2811082899570465,
      0.14780978858470917,
      1.520368196136961e-39
    ]
  ],
  "network.0.bias": [
    0.23267985880374908,
    0.9334776997566223,
    -0.22417189180850983,
    -0.4942934215068817,
    1.3483984470367432,
    -0.4425111711025238,
    0.03594718500971794,
    -0.3129788339138031,
    0.3502042889595032,
    -0.393373966217041
  ],
  "network.2.weight": [
    [
      0.4260313808917999,
      0.3626003861427307,
      -0.31077420711517334,
      -0.47238728404045105,
      -0.5130472183227539,
      0.2926618754863739,
      0.6078004240989685,
      -0.3658686876296997,
      -0.011181204579770565,
      -0.04715150594711304
    ],
    [
      0.798001766204834,
      0.12222709506750107,
      0.9347156882286072,
      -0.2819277048110962,
      0.06118780001997948,
      0.4959201216697693,
      1.33418869972229,
      -1.0617547035217285,
      -0.6965051889419556,
      0.3796657621860504
    ],
    [
      0.1527160257101059,
      0.6285492181777954,
      -0.0021285477560013533,
      0.3436064124107361,
      2.5647671222686768,
      0.2060084491968155,
      0.03071488067507744,
      0.3653544485569,
      0.06933505088090897,
      -0.006729735527187586
    ],
    [
      0.0303421039134264,
      0.1597154438495636,
      -0.19549669325351715,
      0.4723726212978363,
      0.46779221296310425,
      -0.17042841017246246,
      -0.07026951760053635,
      0.12787792086601257,
      0.399181067943573,
      0.21931734681129456
    ],
    [
      -0.4434412121772766,
      -0.07468532770872116,
      -0.500704824924469,
      0.12214410305023193,
      -0.31490403413772583,
      -0.3052733838558197,
      -0.1743287891149521,
      0.8191767334938049,
      0.26782849431037903,
      0.029501352459192276
    ],
    [
      -0.018343297764658928,
      0.39486706256866455,
      -0.7280396223068237,
      0.11054559797048569,
      0.2935502827167511,
      -0.9233450889587402,
      -0.31920763850212097,
      0.07892411947250366,
      0.5051359534263611,
      -0.9134339094161987
    ],
    [
      0.03423728421330452,
      0.07885012030601501,
      -0.5611289739608765,
      0.4340280592441559,
      -0.4713824689388275,
      -0.6865851283073425,
      -0.08279500156641006,
      0.4279976487159729,
      -0.013384070247411728,
      -0.7444976568222046
    ],
    [
      -0.11306388676166534,
      -0.01467593852430582,
      -0.592323899269104,
      0.7165151238441467,
      -0.33113011717796326,
      -0.9101978540420532,
      -0.3160034716129303,
      -0.0017203039024025202,
      0.6134966611862183,
      -0.6646499037742615
    ],
    [
      -0.11649417877197266,
      0.21606451272964478,
      -0.12146135419607162,
      0.037870071828365326,
      0.03087749145925045,
      -0.7167404294013977,
      -0.2909999191761017,
      0.2457250952720642,
      0.687900960445404,
      -0.7051149606704712
    ],
    [
      0.1778055727481842,
      -0.6065411567687988,
      0.17555204033851624,
      0.3965643048286438,
      -0.2945255637168884,
      0.6322885155677795,
      0.35650938749313354,
      -0.6126565337181091,
      -0.616898238658905,
      0.5841864347457886
    ]
  ],
  "network.2.bias": [
    -0.0404660627245903,
    0.31375762820243835,
    0.182251438498497,
    -0.11704996973276138,
    0.19929645955562592,
    0.23223891854286194,
    0.2226005345582962,
    0.12925930321216583,
    0.35689422488212585,
    0.06727992743253708
  ],
  "network.4.weight": [
    [
      0.6975898146629333,
      -0.31769564747810364,
      -0.7017675638198853,
      -0.16732293367385864,
      0.3706575036048889,
      0.17648115754127502,
      0.20748008787631989,
      0.29734164476394653,
      0.2751362919807434,
      -0.3911537528038025
    ]
  ],
  "network.4.bias": [
    0.2487364262342453
  ],
  "input_means": [
    0.6000010967254639,
    0.60000079870224,
    0.0
  ],
  "input_stds": [
    0.35496458411216736,
    0.3549653887748718,
    9.99999993922529e-09
  ],
  "output_mean": -9.442882537841797,
  "output_std": 7.237586975097656
}