{
  "input_means": [
    0.499999463558197,
    0.5,
    0.0
  ],
  "input_stds": [
    0.29450860619544983,
    0.2945084869861603,
    9.999999974752427e-07
  ],
  "layer_sizes": [
    3,
    32,
    32,
    1
  ],
  "activation": "isru",
  "weight_0": [
    [
      -0.285052090883255,
      0.43964698910713196,
      -5.017028254166677e-39
    ],
    [
      -0.06609279662370682,
      -0.060516152530908585,
      -6.527513933013834e-38
    ],
    [
      -0.8735349774360657,
      -0.06625846028327942,
      -5.214043251239039e-38
    ],
    [
      -0.026018094271421432,
      -0.023652981966733932,
      -2.766514053712656e-38
    ],
    [
      1.6854467391967773,
      -0.020803194493055344,
      -6.007821097782318e-38
    ],
    [
      0.25153258442878723,
      -0.4980531334877014,
      -1.2245180489214898e-37
    ],
    [
      0.16801200807094574,
      0.6941106915473938,
      -7.201302515692679e-38
    ],
    [
      0.3058185279369354,
      -0.37993985414505005,
      -2.043541156104628e-38
    ],
    [
      0.4973379969596863,
      0.06990361213684082,
      6.663720143746206e-38
    ],
    [
      0.028166567906737328,
      -0.10260739177465439,
      5.739490378484459e-38
    ],
    [
      0.547362744808197,
      0.1017671748995781,
      -7.064644806595101e-39
    ],
    [
      -0.05920732021331787,
      -0.06807290762662888,
      3.6779695821736183e-38
    ],
    [
      -0.016499875113368034,
      0.07022339105606079,
      4.454872151830419e-39
    ],
    [
      0.28682515025138855,
      -0.0270901620388031,
      5.021678042731e-38
    ],
    [
      0.7034019231796265,
      -0.29994696378707886,
      4.290778139840133e-38
    ],
    [
      -0.024069933220744133,
      -0.055554963648319244,
      -3.634968776977961e-38
    ],
    [
      -0.09636935591697693,
      -0.5784664750099182,
      -1.2281180127023095e-38
    ],
    [
      -0.04376768320798874,
      -0.06319332122802734,
      5.788146263762745e-38
    ],
    [
      0.034040845930576324,
      0.027220923453569412,
      -3.2337122866527143e-38
    ],
    [
      0.06244181841611862,
      0.06472022086381912,
      -2.0578349609601268e-38
    ],
    [
      0.1136346086859703,
      -0.2502560615539551,
      3.025354058771336e-38
    ],
    [
      -0.01429262850433588,
      0.021379826590418816,
      4.293978145013265e-38
    ],
    [
      -0.042633384466171265,
      -0.018867233768105507,
      5.821659717835537e-38
    ],
    [
      -0.026009416207671165,
      -0.006775460205972195,
      -6.098207090808811e-38
    ],
    [
      0.050694167613983154,
      0.0018257600022479892,
      5.653771269863552e-38
    ],
    [
      0.1964665800333023,
      -0.3344590663909912,
      -1.3011959798505723e-37
    ],
    [
      -0.5885575413703918,
      -0.13422134518623352,
      -7.616530792486323e-38
    ],
    [
      0.05341450497508049,
      0.01036701537668705,
      6.213936967861084e-38
    ],
    [
      -0.32547080516815186,
      -0.09313585609197617,
      -2.3331395223253912e-39
    ],
    [
      0.031048214063048363,
      0.0027576214633882046,
      5.67908376480373e-38
    ],
    [
      -0.08607959002256393,
      -0.09367389231920242,
      -9.989804063349362e-38
    ],
    [
      0.8968148231506348,
      -0.010007270611822605,
      -6.690829103317648e-38
    ]
  ],
  "bias_1": [
    0.17849373817443848,
    0.6726036071777344,
    0.29668959975242615,
    0.5892227292060852,
    0.02992653101682663,
    -0.6530466675758362,
    0.3869090974330902,
    0.7039474844932556,
    0.8434940576553345,
    -0.31206077337265015,
    0.9157930016517639,
    0.2281908392906189,
    0.13196396827697754,
    0.12412939965724945,
    0.08065438270568848,
    0.567690908908844,
    -0.2629753053188324,
    0.5256604552268982,
    -0.686238706111908,
    -0.4598405063152313,
    0.27128538489341736,
    0.6220118999481201,
    0.4362930655479431,
    0.2830217182636261,
    -0.7705249786376953,
    0.37175434827804565,
    -0.9299926161766052,
    -0.6410691738128662,
    -0.05294691026210785,
    -0.5550503730773926,
    0.7034109234809875,
    -0.3622477650642395
  ],
  "weight_2": [
    [
      0.006710769142955542,
      0.060944028198719025,
      -0.0008142781443893909,
      -0.02492096647620201,
      0.1569809466600418,
      -0.0077418191358447075,
      0.03626509755849838,
      0.03261146321892738,
      0.09843599051237106,
      0.20623259246349335,
      0.23594069480895996,
      -0.0017094743670895696,
      0.16501744091510773,
      -0.10960213094949722,
      -0.15441229939460754,
      0.02021842449903488,
      0.20834623277187347,
      -0.2284592241048813,
      0.17559266090393066,
      -0.03417125716805458,
      -0.004779921378940344,
      -0.006972406525164843,
      -0.180938258767128,
      -0.22519797086715698,
      0.08658084273338318,
      0.09300684183835983,
      -0.41938987374305725,
      -0.030618365854024887,
      -0.16846466064453125,
      0.15639705955982208,
      -0.16437748074531555,
      -0.2092885673046112
    ],
    [
      0.045571375638246536,
      -0.06364259123802185,
      -0.17732782661914825,
      0.010900961235165596,
      -0.3900153338909149,
      0.034856684505939484,
      -0.10887899249792099,
      -0.0823950320482254,
      0.018872292712330818,
      -0.03170841559767723,
      -0.2512015104293823,
      0.030471576377749443,
      0.09187772125005722,
      -0.19881822168827057,
      -0.00022084364900365472,
      0.015411249361932278,
      -0.019561778753995895,
      0.14486616849899292,
      -0.2911064624786377,
      -0.011948050931096077,
      -0.09421922266483307,
      0.2980673909187317,
      0.029634175822138786,
      0.1109367311000824,
      -0.051095861941576004,
      -0.0721297487616539,
      0.47887900471687317,
      -0.2209216207265854,
      0.05142316222190857,
      -0.2528284788131714,
      0.11928760260343552,
      0.3947262763977051
    ],
    [
      -0.10745653510093689,
      -0.08958277851343155,
      -0.12357248365879059,
      -0.007137292064726353,
      0.23662948608398438,
      0.2553648352622986,
      0.33640000224113464,
      -0.03132869303226471,
      -0.06443396210670471,
      0.286415159702301,
      0.17300638556480408,
      -0.20811708271503448,
      -0.10460978001356125,
      0.1138121634721756,
      0.1246100515127182,
      -0.10146572440862656,
      -0.39464983344078064,
      -0.1535910815000534,
      0.07346225529909134,
      0.18952052295207977,
      -0.2416153997182846,
      -0.16065925359725952,
      -0.005100658629089594,
      -0.03035842813551426,
      0.19895102083683014,
      0.3099069595336914,
      -0.1532381922006607,
      0.18994954228401184,
      -0.13419993221759796,
      0.18414966762065887,
      0.037609923630952835,
      0.10713426023721695
    ],
    [
      0.02963990345597267,
      -0.12859351933002472,
      0.02505386993288994,
      -0.05667966231703758,
      0.03373725339770317,
      0.002888002200052142,
      -0.027062322944402695,
      0.10998962074518204,
      0.15831297636032104,
      -0.007729110307991505,
      0.22521042823791504,
      -0.0650983527302742,
      -0.24670059978961945,
      0.19891653954982758,
      0.11621659994125366,
      0.03219466656446457,
      -0.05169779807329178,
      0.021302975714206696,
      0.014930996112525463,
      0.05126466974616051,
      -0.07983832061290741,
      0.03635521978139877,
      -0.05074239894747734,
      -0.2899200916290283,
      0.2763773500919342,
      -0.03208906203508377,
      -0.06117918714880943,
      0.279802531003952,
      -0.004393755923956633,
      0.30758556723594666,
      -0.005763167981058359,
      -0.00893996562808752
    ],
    [
      -0.05810118094086647,
      0.09481478482484818,
      0.07427667081356049,
      -0.023137878626585007,
      0.1585719734430313,
      -0.030636021867394447,
      0.017283596098423004,
      0.044150691479444504,
      0.3527320921421051,
      -0.04621882364153862,
      0.11579256504774094,
      -0.17602869868278503,
      0.08828582614660263,
      -0.1188422366976738,
      -0.161419078707695,
      -0.19276106357574463,
      0.18325017392635345,
      -0.2722839415073395,
      0.05791737511754036,
      0.11711462587118149,
      0.0830877348780632,
      -0.19656826555728912,
      -0.08703025430440903,
      -0.27015331387519836,
      -0.05537565052509308,
      0.06346248090267181,
      -0.40884509682655334,
      0.22009000182151794,
      -0.14863359928131104,
      0.114480160176754,
      -0.0037541345227509737,
      -0.23711811006069183
    ],
    [
      0.19738592207431793,
      -0.036041129380464554,
      -0.17909955978393555,
      -0.004633289761841297,
      -0.35011205077171326,
      -0.06622175872325897,
      -0.17863036692142487,
      0.02970723807811737,
      -0.1881985068321228,
      0.11262920498847961,
      -0.1429433673620224,
      0.1983506679534912,
      0.025319702923297882,
      0.04067447781562805,
      0.22715364396572113,
      0.23894910514354706,
      -0.11120419204235077,
      0.09644950181245804,
      -0.28635868430137634,
      -0.08934132009744644,
      -0.016617342829704285,
      0.27023911476135254,
      0.14724788069725037,
      0.13015055656433105,
      -0.1864297240972519,
      -0.19393816590309143,
      0.4549899101257324,
      -0.15754669904708862,
      0.004319750238209963,
      0.029098043218255043,
      -0.039049066603183746,
      0.17552058398723602
    ],
    [
      0.10464132577180862,
      0.11035032570362091,
      -0.18894554674625397,
      0.14113324880599976,
      -0.12157681584358215,
      -0.017785174772143364,
      0.1075054481625557,
      -0.05909399688243866,
      -0.19126397371292114,
      0.13823793828487396,
      -0.3515523672103882,
      0.1267971396446228,
      -0.15169081091880798,
      -0.14992138743400574,
      0.23258507251739502,
      -0.0025136133190244436,
      -0.06584511697292328,
      0.20984263718128204,
      -0.25165265798568726,
      -0.23378391563892365,
      0.03216753900051117,
      0.25473901629447937,
      0.09295293688774109,
      0.2434149533510208,
      0.00547849340364337,
      -0.012759500183165073,
      0.22090619802474976,
      0.09989680349826813,
      0.1139809861779213,
      -0.059074729681015015,
      0.172115296125412,
      0.022283747792243958
    ],
    [
      0.3885630667209625,
      0.11247294396162033,
      0.24439354240894318,
      0.2867910861968994,
      -0.011276962235569954,
      -0.2509107291698456,
      -0.1293168067932129,
      0.22792086005210876,
      0.26725533604621887,
      -0.22735369205474854,
      0.1461210697889328,
      0.19503317773342133,
      0.03026902861893177,
      -0.1021309643983841,
      0.014083454385399818,
      0.36717912554740906,
      -0.16566121578216553,
      0.4069385528564453,
      -0.3501166105270386,
      -0.17928917706012726,
      -0.011575398035347462,
      0.41638338565826416,
      0.31617483496665955,
      0.18378925323486328,
      -0.1787855476140976,
      0.286975622177124,
      -0.18920382857322693,
      -0.24337157607078552,
      0.029444493353366852,
      -0.2753538191318512,
      0.11590833961963654,
      -0.3370322585105896
    ],
    [
      -0.17550991475582123,
      -0.17479994893074036,
      0.22835904359817505,
      -0.08340705186128616,
      0.19786518812179565,
      -0.10217324644327164,
      0.052767980843782425,
      -0.031146125867962837,
      0.182852104306221,
      0.0027645169757306576,
      0.2754266858100891,
      -0.056771211326122284,
      0.02036687731742859,
      0.20030125975608826,
      0.08788509666919708,
      0.03505425155162811,
      -0.04151284694671631,
      -0.21186047792434692,
      0.1349029839038849,
      -0.0026048857253044844,
      -0.00015403568977490067,
      -0.14748167991638184,
      -0.19608603417873383,
      -0.30024853348731995,
      0.16485008597373962,
      0.1542220562696457,
      -0.3070231080055237,
      0.029970893636345863,
      -0.06829417496919632,
      0.12180022150278091,
      -0.1845901608467102,
      -0.25926464796066284
    ],
    [
      0.02010645903646946,
      -0.059553783386945724,
      0.0561622716486454,
      0.15400876104831696,
      -0.09032939374446869,
      0.31228113174438477,
      0.21200157701969147,
      -0.031233584508299828,
      -0.10909652709960938,
      -0.07503346353769302,
      -0.3330971896648407,
      -0.007497417274862528,
      -0.008459578268229961,
      0.15551075339317322,
      0.27654731273651123,
      0.027288153767585754,
      -0.12189649790525436,
      -0.024418892338871956,
      0.002299400046467781,
      -0.20707069337368011,
      -0.10789588838815689,
      0.22860564291477203,
      0.15472570061683655,
      0.03558526560664177,
      -0.1775801181793213,
      -0.15292596817016602,
      0.45867404341697693,
      -0.23299521207809448,
      0.15546640753746033,
      0.05245976895093918,
      0.06174938753247261,
      0.12598378956317902
    ],
    [
      0.06769634038209915,
      0.11346424371004105,
      0.0415690541267395,
      0.23130924999713898,
      -0.229433074593544,
      0.2701669931411743,
      0.2228933423757553,
      -0.1524830460548401,
      -0.08311951160430908,
      -0.10887274891138077,
      -0.32533499598503113,
      0.022785257548093796,
      -0.1356610506772995,
      0.014130337163805962,
      0.07141619175672531,
      0.18311308324337006,
      0.07258310168981552,
      0.07328514754772186,
      -0.2250668704509735,
      -0.09289643168449402,
      -0.17649085819721222,
      -0.047266636043787,
      0.05425257980823517,
      0.22718317806720734,
      -0.1906152367591858,
      -0.009479978121817112,
      0.22336368262767792,
      -0.23107412457466125,
      -0.04973616823554039,
      -0.09851012378931046,
      0.01406895462423563,
      0.32748687267303467
    ],
    [
      -0.06630333513021469,
      0.048977769911289215,
      0.18184733390808105,
      -0.1372460275888443,
      0.3917323648929596,
      -0.11724844574928284,
      -0.018508385866880417,
      0.186101034283638,
      0.10397917032241821,
      0.11440998315811157,
      0.10796507447957993,
      -0.16695575416088104,
      -0.007061456795781851,
      0.10546696186065674,
      -0.09785813093185425,
      -0.09182437509298325,
      -0.02710600197315216,
      -0.2439425140619278,
      0.2928464114665985,
      -0.033215250819921494,
      0.06139618158340454,
      -0.018092606216669083,
      -0.04557766765356064,
      -0.11675803363323212,
      -0.05406057834625244,
      0.13145765662193298,
      -0.4689130187034607,
      0.07519000768661499,
      0.05522158741950989,
      0.09125705808401108,
      -0.19788822531700134,
      -0.33261236548423767
    ],
    [
      0.07044844329357147,
      -0.06780944764614105,
      0.17993004620075226,
      -0.09646693617105484,
      0.06994359940290451,
      -0.0488215871155262,
      0.019896144047379494,
      0.2526390552520752,
      0.27589452266693115,
      -0.046919841319322586,
      0.1577301323413849,
      0.07372750341892242,
      -0.11291419714689255,
      0.08863786607980728,
      -0.08644121885299683,
      -0.05057983845472336,
      0.14214423298835754,
      -0.24661359190940857,
      0.07375674694776535,
      0.2736234962940216,
      0.06440653651952744,
      -0.03491809591650963,
      -0.2451554536819458,
      -0.028540456667542458,
      0.06535512208938599,
      0.029641887173056602,
      -0.3112470209598541,
      0.0537266880273819,
      -0.13485154509544373,
      0.11174845695495605,
      -0.09149806946516037,
      -0.1385599970817566
    ],
    [
      0.15013085305690765,
      -0.13034537434577942,
      -0.03806105628609657,
      0.2693675458431244,
      -0.16168582439422607,
      -0.004442685283720493,
      -0.04121934995055199,
      -0.03215685114264488,
      -0.02695046178996563,
      0.05826551094651222,
      -0.19604310393333435,
      0.03281145542860031,
      0.16222529113292694,
      0.04129830747842789,
      0.04744609817862511,
      -0.07475744932889938,
      -0.07372502237558365,
      0.18236079812049866,
      0.03268161788582802,
      -0.17496734857559204,
      -0.023422585800290108,
      0.07001104950904846,
      0.08454707264900208,
      0.23813794553279877,
      -0.23292183876037598,
      0.061574872583150864,
      0.38711678981781006,
      -0.1883896291255951,
      0.0904964879155159,
      -0.1508333832025528,
      0.0612264946103096,
      0.19474728405475616
    ],
    [
      -0.1856144219636917,
      0.06480471044778824,
      -0.03840366378426552,
      0.07303027808666229,
      -0.23075880110263824,
      0.08904008567333221,
      0.12224986404180527,
      -0.17775973677635193,
      -0.23425906896591187,
      -0.1845369189977646,
      -0.14264321327209473,
      0.1359456479549408,
      0.20088592171669006,
      0.019774608314037323,
      0.18924252688884735,
      0.15436258912086487,
      -0.17040768265724182,
      -0.04172520712018013,
      0.027118999511003494,
      0.049558933824300766,
      0.07720324397087097,
      -0.08681073039770126,
      0.20433230698108673,
      -0.027773333713412285,
      -0.012752160429954529,
      -0.07042611390352249,
      0.23799313604831696,
      -0.28089475631713867,
      -0.027567265555262566,
      -0.03810153156518936,
      0.2080402821302414,
      0.07615064084529877
    ],
    [
      0.10352623462677002,
      0.03175436705350876,
      -0.16494832932949066,
      0.05079732462763786,
      -0.2653399407863617,
      0.11551938951015472,
      0.13499663770198822,
      -0.1680900901556015,
      -0.31455662846565247,
      -0.1996595561504364,
      -0.1960776001214981,
      0.05755005031824112,
      -0.20725476741790771,
      -0.0462367944419384,
      0.07737107574939728,
      0.16098129749298096,
      -0.03356883302330971,
      0.2308528870344162,
      -0.19994059205055237,
      -0.18104518949985504,
      0.01593698374927044,
      0.13875295221805573,
      0.28731146454811096,
      0.145290344953537,
      0.05339520424604416,
      0.0769757404923439,
      0.3564988374710083,
      -0.11134634912014008,
      -0.016963746398687363,
      -0.0461730882525444,
      0.02142307534813881,
      0.21935255825519562
    ],
    [
      -0.2826668322086334,
      -0.24231186509132385,
      -0.34553298354148865,
      -0.33548271656036377,
      0.016995510086417198,
      0.25618478655815125,
      0.05568189546465874,
      -0.24824336171150208,
      -0.4185760021209717,
      0.16181613504886627,
      -0.40994298458099365,
      -0.06762006878852844,
      0.03438067436218262,
      -0.13870860636234283,
      0.23731330037117004,
      -0.29023951292037964,
      0.17205636203289032,
      -0.316291481256485,
      0.29150739312171936,
      0.32768017053604126,
      0.036618899554014206,
      -0.3118423819541931,
      -0.11885039508342743,
      -0.3120865523815155,
      0.2430507093667984,
      -0.3551326096057892,
      0.37687212228775024,
      0.05028117448091507,
      -0.09192755818367004,
      0.2783375084400177,
      -0.22347748279571533,
      0.32914724946022034
    ],
    [
      0.17153145372867584,
      0.1985846608877182,
      -0.2216404229402542,
      0.0864344909787178,
      -0.30303576588630676,
      0.12609903514385223,
      -0.01791454292833805,
      -0.10228733718395233,
      -0.22307969629764557,
      -0.13896939158439636,
      -0.40780648589134216,
      0.10267177224159241,
      -0.0674557089805603,
      0.07185053080320358,
      0.10668071359395981,
      0.12063177675008774,
      -0.1529696136713028,
      0.06092705950140953,
      -0.15841969847679138,
      -0.22629643976688385,
      0.044614844024181366,
      -0.019808510318398476,
      0.21113519370555878,
      0.061646346002817154,
      0.05100419744849205,
      0.0343102291226387,
      0.22659383714199066,
      0.07397130876779556,
      0.06695478409528732,
      -0.22244195640087128,
      0.11361756920814514,
      0.20975302159786224
    ],
    [
      0.18157581984996796,
      -0.2127199023962021,
      0.22613205015659332,
      0.02673536166548729,
      0.2677796483039856,
      -0.09504856914281845,
      -0.22836105525493622,
      0.2260519415140152,
      0.34888720512390137,
      -0.044074323028326035,
      0.20044873654842377,
      0.12750469148159027,
      0.268444687128067,
      0.06253299117088318,
      -0.05003311112523079,
      -0.18666569888591766,
      0.11042780429124832,
      -0.16230934858322144,
      0.21086186170578003,
      0.13983550667762756,
      -0.06912483274936676,
      -0.10865624994039536,
      -0.2691165804862976,
      -0.2867889106273651,
      0.23417159914970398,
      -0.05219631269574165,
      -0.22788870334625244,
      0.04920181632041931,
      -0.0005271147238090634,
      0.1066671833395958,
      0.08498510718345642,
      -0.1533629596233368
    ],
    [
      0.13574698567390442,
      0.07409325987100601,
      0.18850760161876678,
      -0.24933107197284698,
      0.07898362725973129,
      -0.28706324100494385,
      -0.21815019845962524,
      0.08876676857471466,
      0.2147919088602066,
      0.18715479969978333,
      0.29275834560394287,
      -0.10045976936817169,
      -0.03665062412619591,
      0.11826873570680618,
      -0.11403343081474304,
      -0.028114235028624535,
      0.08219865709543228,
      -0.1104390025138855,
      0.15627066791057587,
      -0.04108738154172897,
      0.2078273445367813,
      -0.006020321976393461,
      -0.21456143260002136,
      -0.1833590716123581,
      0.016898447647690773,
      0.08612643927335739,
      -0.3505239188671112,
      0.24113522469997406,
      -0.15872932970523834,
      -0.008694074116647243,
      -0.14272834360599518,
      -0.060926467180252075
    ],
    [
      0.004147208295762539,
      0.049481675028800964,
      -0.003489595837891102,
      -0.04851303622126579,
      -0.15287554264068604,
      -0.09546002000570297,
      0.004000090528279543,
      -0.23914121091365814,
      -0.2027498036623001,
      -0.2616387605667114,
      -0.015243228524923325,
      0.015429574064910412,
      0.163411945104599,
      -0.06369621306657791,
      0.043329332023859024,
      0.08530588448047638,
      0.08781946450471878,
      -0.02053147181868553,
      0.005047431215643883,
      -0.034278783947229385,
      0.1829511821269989,
      0.16909798979759216,
      0.17921671271324158,
      0.0647447407245636,
      -0.16461510956287384,
      0.007961269468069077,
      0.26423054933547974,
      -0.1292085200548172,
      0.11242684721946716,
      -0.22701296210289001,
      0.18433351814746857,
      0.147121399641037
    ],
    [
      -0.34409838914871216,
      -0.14022794365882874,
      0.004253273364156485,
      -0.1027628555893898,
      0.08899319916963577,
      0.07354781031608582,
      0.18983028829097748,
      -0.07446884363889694,
      0.09338252246379852,
      0.07419079542160034,
      0.20328068733215332,
      0.11938462406396866,
      -0.14475394785404205,
      0.17885234951972961,
      -0.009246637113392353,
      -0.21702462434768677,
      -0.15798281133174896,
      -0.09728414565324783,
      0.18105657398700714,
      0.11143441498279572,
      -0.06474480032920837,
      -0.05143360048532486,
      -0.11093241721391678,
      -0.3011324107646942,
      0.05958561971783638,
      0.08000919967889786,
      -0.34161728620529175,
      0.001680032117292285,
      -0.2313482165336609,
      0.29185882210731506,
      -0.22105896472930908,
      -0.08220457285642624
    ],
    [
      -0.04640905186533928,
      0.128322035074234,
      -0.12075021862983704,
      0.07016099989414215,
      -0.2373773157596588,
      -0.022034218534827232,
      -0.14305993914604187,
      -0.19475236535072327,
      -0.05556640028953552,
      -0.21855393052101135,
      -0.12502190470695496,
      0.26656222343444824,
      0.15106794238090515,
      -0.17895957827568054,
      0.033149950206279755,
      0.027460256591439247,
      -0.11778321862220764,
      -0.06095597520470619,
      -0.22608521580696106,
      0.027116958051919937,
      0.19428256154060364,
      0.1460869014263153,
      0.18935224413871765,
      0.07906247675418854,
      -0.057137757539749146,
      -0.15810249745845795,
      0.22158193588256836,
      -0.04481411352753639,
      0.04073062539100647,
      -0.15475186705589294,
      0.004132549744099379,
      0.13514745235443115
    ],
    [
      0.024368995800614357,
      -0.20335857570171356,
      0.20082147419452667,
      -0.09631353616714478,
      0.1707620769739151,
      0.10207293927669525,
      0.03473547846078873,
      0.13493821024894714,
      0.11742928624153137,
      -0.03036217764019966,
      0.1440768986940384,
      0.019640909507870674,
      0.05133774131536484,
      -0.06825974583625793,
      0.07883031666278839,
      -0.002304961672052741,
      -0.015866409987211227,
      -0.04188156500458717,
      0.05733511596918106,
      0.16255556046962738,
      0.1406252235174179,
      -0.27947717905044556,
      -0.22376267611980438,
      -0.15495175123214722,
      0.10472529381513596,
      -0.08025061339139938,
      -0.4746571481227875,
      0.07364599406719208,
      -0.08163882046937943,
      0.15049974620342255,
      -0.04422808066010475,
      -0.15055090188980103
    ],
    [
      0.05447465553879738,
      0.14224182069301605,
      -0.09880086034536362,
      0.1845168173313141,
      -0.11913781613111496,
      -0.09225881099700928,
      -0.03671618178486824,
      -0.08805741369724274,
      -0.2215648740530014,
      -0.04466097801923752,
      -0.02174507826566696,
      0.1251888871192932,
      0.04542219266295433,
      -0.025130197405815125,
      -0.08025070279836655,
      -0.09235860407352448,
      0.07850594818592072,
      -0.14154821634292603,
      -0.2569486200809479,
      -0.16611038148403168,
      0.0589417964220047,
      0.11609348654747009,
      0.04676634073257446,
      0.14471402764320374,
      -0.17831893265247345,
      0.02214675582945347,
      0.3289046883583069,
      -0.07311242073774338,
      0.07252069562673569,
      -0.018130933865904808,
      -0.0356745608150959,
      0.15239697694778442
    ],
    [
      -0.1052766963839531,
      0.22458985447883606,
      -0.26076072454452515,
      0.16407901048660278,
      -0.3337686061859131,
      0.1594746708869934,
      0.09403614699840546,
      0.05123361200094223,
      -0.2446989268064499,
      0.02275387942790985,
      -0.2576000988483429,
      -0.008255933411419392,
      0.10224641859531403,
      -0.04731865972280502,
      -0.028001712635159492,
      -0.09107577800750732,
      -0.11907587200403214,
      0.07719248533248901,
      0.059645991772413254,
      0.041989121586084366,
      0.051374293863773346,
      -0.06222335621714592,
      -0.046749215573072433,
      0.2755972146987915,
      -0.20073749125003815,
      -0.12573383748531342,
      0.08472274243831635,
      -0.23309758305549622,
      0.07986829429864883,
      -0.15883708000183105,
      0.09903163462877274,
      0.12019355595111847
    ],
    [
      0.08018235117197037,
      0.006527802906930447,
      -0.11686458438634872,
      0.1927744299173355,
      -0.06352405250072479,
      0.2236292064189911,
      0.04727451875805855,
      -0.254812091588974,
      -0.2001083642244339,
      -0.09302138537168503,
      -0.12185326963663101,
      0.14787808060646057,
      0.02298656478524208,
      -0.10740795731544495,
      0.1225217804312706,
      0.21451744437217712,
      -0.11326470226049423,
      -0.005519269499927759,
      -0.12164135277271271,
      -0.26680639386177063,
      -0.16520299017429352,
      0.24696533381938934,
      0.06091074272990227,
      0.24775990843772888,
      -0.2212037593126297,
      0.09693609923124313,
      0.4052780270576477,
      0.022318623960018158,
      0.05168789625167847,
      -0.10194914042949677,
      -0.03946952894330025,
      0.0774075910449028
    ],
    [
      -0.10278161615133286,
      0.14352978765964508,
      -0.269652396440506,
      0.08126088231801987,
      -0.4172685742378235,
      0.15511874854564667,
      0.011346145533025265,
      -0.15743571519851685,
      -0.1809854954481125,
      -0.19871874153614044,
      -0.3044789433479309,
      -0.14964012801647186,
      0.03837048262357712,
      -0.20198725163936615,
      0.11911304295063019,
      0.15517054498195648,
      -0.16275860369205475,
      0.1979249119758606,
      0.04927622154355049,
      -0.17041313648223877,
      0.015694158151745796,
      0.1458228975534439,
      0.24385707080364227,
      0.26192599534988403,
      -0.17781582474708557,
      -0.16211093962192535,
      0.25242602825164795,
      -0.12705901265144348,
      -0.021746134385466576,
      -0.1407947838306427,
      0.12856751680374146,
      0.19233205914497375
    ],
    [
      -0.1423434466123581,
      -0.18764708936214447,
      -0.036234334111213684,
      0.06999104470014572,
      0.21400322020053864,
      -0.16945607960224152,
      -0.17173579335212708,
      0.014009740203619003,
      0.1489325910806656,
      0.14356361329555511,
      0.3688563406467438,
      0.09849119186401367,
      0.05118948593735695,
      -0.08410055935382843,
      -0.21860338747501373,
      0.0847921147942543,
      -0.04499587044119835,
      -0.06232432648539543,
      0.09911064058542252,
      0.25803342461586,
      0.15100565552711487,
      -0.14762315154075623,
      -0.2709641754627228,
      -0.11105900257825851,
      -0.05214859917759895,
      0.0639151856303215,
      -0.29810911417007446,
      0.1699492186307907,
      -0.0842403918504715,
      -0.016166556626558304,
      -0.2065351903438568,
      -0.30494171380996704
    ],
    [
      0.0385083332657814,
      -0.043955445289611816,
      -0.13202324509620667,
      0.052988383919000626,
      -0.3140348196029663,
      0.25344449281692505,
      0.18513987958431244,
      0.007151841651648283,
      -0.07822518050670624,
      -0.2012188583612442,
      -0.4011133015155792,
      -0.08507093042135239,
      0.06716390699148178,
      0.0916099101305008,
      0.2664068043231964,
      -0.005948227364569902,
      -0.17130394279956818,
      0.29050853848457336,
      -0.28970634937286377,
      -0.24375906586647034,
      0.051958516240119934,
      -0.025855187326669693,
      0.11102858930826187,
      0.2480545938014984,
      0.054801635444164276,
      -0.09852267056703568,
      0.2710930109024048,
      -0.0072150458581745625,
      0.1959073841571808,
      -0.26521164178848267,
      0.06753174215555191,
      0.11485090851783752
    ],
    [
      -0.09881512075662613,
      0.0019014986464753747,
      0.12524119019508362,
      -0.08759639412164688,
      0.13152186572551727,
      -0.20402245223522186,
      -0.10109233856201172,
      0.13215221464633942,
      0.18167933821678162,
      0.0004227061872370541,
      0.46774932742118835,
      -0.17695622146129608,
      -0.10414282232522964,
      0.1710231602191925,
      -0.16173595190048218,
      -0.02421855740249157,
      0.034574951976537704,
      -0.1462380737066269,
      0.09213180840015411,
      0.28819212317466736,
      0.15048429369926453,
      -0.13310717046260834,
      -0.1865965873003006,
      -0.2616662085056305,
      0.008806956000626087,
      0.02796102501451969,
      -0.3449910581111908,
      0.0972745344042778,
      0.07121940702199936,
      0.18717046082019806,
      -0.07097487151622772,
      -0.21329322457313538
    ],
    [
      0.08437993377447128,
      -0.22918550670146942,
      0.12802065908908844,
      -0.06080344691872597,
      0.21298325061798096,
      -0.027558056637644768,
      -0.07545579969882965,
      0.06930861622095108,
      0.08970579504966736,
      -0.1062227115035057,
      0.35113370418548584,
      0.04945246875286102,
      -0.08121208101511002,
      0.05488342419266701,
      -0.18158012628555298,
      0.038980886340141296,
      0.05098698288202286,
      0.026251204311847687,
      0.2617722153663635,
      0.21326890587806702,
      0.14940010011196136,
      -0.061405669897794724,
      -0.08575193583965302,
      -0.2995067834854126,
      0.047679319977760315,
      0.051314037293195724,
      -0.27881285548210144,
      0.03353193774819374,
      0.05996226891875267,
      0.2423466593027115,
      0.0013654254144057631,
      -0.07103928178548813
    ]
  ],
  "bias_3": [
    -0.1354256421327591,
    0.2268761843442917,
    -0.22649137675762177,
    0.024312421679496765,
    -0.13095349073410034,
    0.08231782913208008,
    -0.07048993557691574,
    0.3887178897857666,
    -0.13643574714660645,
    0.22388485074043274,
    -0.025382978841662407,
    -0.30377480387687683,
    -0.15821343660354614,
    -0.03508567437529564,
    0.1389174610376358,
    0.121419757604599,
    -0.2294626235961914,
    0.19379031658172607,
    0.001697755535133183,
    -0.2507934272289276,
    -0.02620127610862255,
    -0.025666281580924988,
    0.057471077889204025,
    -0.07653027027845383,
    0.08213867247104645,
    0.13883568346500397,
    0.01744503155350685,
    0.08034145087003708,
    -0.1614098995923996,
    0.05083547160029411,
    -0.25167176127433777,
    -0.08161966502666473
  ],
  "weight_4": [
    [
      0.5408739447593689,
      -0.40105774998664856,
      0.21792127192020416,
      0.3643452227115631,
      0.6553559899330139,
      -0.3904200494289398,
      -0.5570498704910278,
      -0.1034303829073906,
      0.41152217984199524,
      -0.734861433506012,
      -0.6130856275558472,
      0.4505774974822998,
      0.701429009437561,
      -0.4691249132156372,
      -0.5419127345085144,
      -0.5014021992683411,
      0.09262081235647202,
      -0.5366588830947876,
      0.6711933612823486,
      0.6859835982322693,
      -0.40679770708084106,
      0.25808656215667725,
      -0.377670019865036,
      0.4439840018749237,
      -0.44552963972091675,
      -0.5056904554367065,
      -0.5954387187957764,
      -0.407992959022522,
      0.6285961866378784,
      -0.5805450677871704,
      0.6054655909538269,
      0.6405922770500183
    ]
  ],
  "bias_5": [
    -2.066337823867798
  ]
}